{
  "type": "NeuralNetwork",
  "sizes": [9, 8, 8, 1],
  "layers": [
    {
      "weights": [],
      "biases": []
    },
    {
      "weights": [
        [
          -0.5805860161781311, 5.017387866973877, -0.1764167696237564,
          0.07473227381706238, -0.2108432948589325, 0.1768237054347992,
          0.12755948305130005, -0.05496425926685333, 2.8589093685150146
        ],
        [
          0.10922928899526596, 8.80282974243164, 0.015690496191382408,
          -2.980473279953003, -2.4038193225860596, -0.45186305046081543,
          -0.20072409510612488, 0.9908873438835144, 1.204824686050415
        ],
        [
          -3.538975715637207, 9.109479904174805, 0.0005413693725131452,
          -1.40816330909729, -1.207568645477295, -0.29188570380210876,
          -0.20357631146907806, -0.5645191669464111, 5.712104320526123
        ],
        [
          1.1237213611602783, -6.774521350860596, -0.1270352154970169,
          1.4966142177581787, 1.000981330871582, 0.05987690016627312,
          0.1412973552942276, -0.2853659987449646, -1.664673924446106
        ],
        [
          3.2515666484832764, -9.0995454788208, 0.11586955189704895,
          1.2639718055725098, 0.7770598530769348, 0.2313399612903595,
          0.3274320363998413, -0.19636724889278412, -5.343695640563965
        ],
        [
          0.39654406905174255, 0.5716906785964966, 0.003535553114488721,
          2.2821457386016846, 1.5971155166625977, 0.23606662452220917,
          0.3999563753604889, -4.356850624084473, 1.061210036277771
        ],
        [
          -6.523271083831787, 1.283495306968689, 0.10141195356845856,
          2.5502889156341553, 2.0998620986938477, 0.33211779594421387,
          0.17265532910823822, -1.3889985084533691, 6.075707912445068
        ],
        [
          -3.8635902404785156, 6.674306392669678, 0.06007017195224762,
          1.06000816822052, 0.6668609380722046, 0.23981444537639618,
          -0.06074615940451622, -0.7838886380195618, 5.191156387329102
        ]
      ],
      "biases": [
        0.02199690230190754, -3.1606767177581787, -1.2496095895767212,
        1.3897920846939087, 1.2982988357543945, 2.078899621963501,
        2.4712038040161133, 1.097669005393982
      ]
    },
    {
      "weights": [
        [
          -1.2513099908828735, -1.4699026346206665, -3.1703531742095947,
          0.44881749153137207, 2.5477871894836426, -2.8477425575256348,
          -1.576593041419983, -1.365936279296875
        ],
        [
          -1.1530859470367432, -1.4022225141525269, -2.7377312183380127,
          0.36321789026260376, 2.2026312351226807, -2.4451980590820312,
          -1.5456268787384033, -1.2963120937347412
        ],
        [
          -0.4989387094974518, -0.8816855549812317, -1.1730003356933594,
          -0.06587208062410355, 0.22089868783950806, -1.0524678230285645,
          -0.912968099117279, -0.7945062518119812
        ],
        [
          -0.6784740686416626, -1.0617125034332275, -1.3742107152938843,
          0.247501939535141, 0.6530183553695679, -1.2773330211639404,
          -1.212886095046997, -0.9300983548164368
        ],
        [
          -0.30978336930274963, -0.6961399912834167, -0.6480393409729004,
          -0.49491801857948303, -0.16108237206935883, 0.06602979451417923,
          -0.27333247661590576, -0.47229644656181335
        ],
        [
          -0.8319990038871765, -1.1723988056182861, -2.2907798290252686,
          0.35347655415534973, 1.5772449970245361, -2.292555809020996,
          -1.120286464691162, -1.1077357530593872
        ],
        [
          0.6994000673294067, -0.9131363034248352, -0.812994122505188,
          -0.37870025634765625, -1.0440648794174194, 1.8154125213623047,
          1.8519887924194336, 1.3136143684387207
        ],
        [
          0.9612460732460022, 2.589724540710449, 1.0778249502182007,
          -1.5961904525756836, -2.28080677986145, 3.4596121311187744,
          2.0904135704040527, 1.1907265186309814
        ]
      ],
      "biases": [
        0.19622863829135895, 0.17000772058963776, -0.38636514544487,
        -0.26073306798934937, -0.8076282739639282, -0.03950750082731247,
        -1.7080756425857544, -1.7464990615844727
      ]
    },
    {
      "weights": [
        [
          4.296163082122803, 3.5970864295959473, 1.195551872253418,
          1.6109334230422974, 0.3737014830112457, 2.758774518966675,
          -2.3930935859680176, -3.328232765197754
        ]
      ],
      "biases": [-1.3082937002182007]
    }
  ],
  "inputLookup": null,
  "inputLookupLength": 0,
  "outputLookup": null,
  "outputLookupLength": 0,
  "options": {
    "inputSize": 0,
    "outputSize": 0,
    "binaryThresh": 0.5,
    "activation": "sigmoid",
    "hiddenLayers": [8, 8],
    "learningRate": 0.6
  },
  "trainOpts": {
    "activation": "sigmoid",
    "iterations": 20000,
    "errorThresh": 0.005,
    "log": false,
    "logPeriod": 10,
    "leakyReluAlpha": 0.01,
    "learningRate": 0.6,
    "momentum": 0.1,
    "callbackPeriod": 10,
    "timeout": "Infinity",
    "beta1": 0.9,
    "beta2": 0.999,
    "epsilon": 1e-8
  }
}
