{
  "type": "NeuralNetwork",
  "sizes": [8, 8, 8, 1],
  "layers": [
    {
      "weights": [],
      "biases": []
    },
    {
      "weights": [
        [
          14.424324035644531, -4.863084316253662, -3.720244884490967,
          -3.121046304702759, -0.5228677988052368, -0.37845250964164734,
          2.1021010875701904, -6.1234283447265625
        ],
        [
          0.4699368178844452, 0.13589005172252655, 1.0800570249557495,
          0.9136570692062378, 0.10704155266284943, 0.324215829372406,
          -2.9804248809814453, 0.6187418699264526
        ],
        [
          2.78200626373291, 14.072192192077637, -6.687157154083252,
          -5.490152359008789, -0.9743879437446594, -0.8678038716316223,
          2.3879096508026123, -4.3896307945251465
        ],
        [
          -21.53697395324707, 5.138967514038086, 6.021627902984619,
          4.8413519859313965, 0.7165340185165405, 0.6636797189712524,
          -3.3418362140655518, 9.514814376831055
        ],
        [
          6.179769039154053, -8.919657707214355, 1.8467191457748413,
          1.8077532052993774, 0.17704451084136963, 0.04183807596564293,
          -0.3532309830188751, -6.606269359588623
        ],
        [
          -15.586845397949219, 9.335222244262695, -1.3074535131454468,
          -1.104077696800232, -0.34927743673324585, -0.13929884135723114,
          0.18956410884857178, 4.997300148010254
        ],
        [
          0.47490379214286804, 0.27553582191467285, 1.3841865062713623,
          1.1329901218414307, 0.22439227998256683, 0.2960417866706848,
          -3.28471040725708, 0.524117112159729
        ],
        [
          0.4091625511646271, 0.3185339570045471, 0.9036054015159607,
          0.7052562832832336, -0.04139367863535881, 0.014005044475197792,
          -2.6972601413726807, 0.4420918822288513
        ]
      ],
      "biases": [
        -4.001499176025391, 1.4618769884109497, -6.9174418449401855,
        6.517716407775879, 2.0483579635620117, -1.522051215171814,
        1.606042504310608, 1.241397500038147
      ]
    },
    {
      "weights": [
        [
          -0.9000207781791687, -0.3928113877773285, -0.845009446144104,
          -0.6220624446868896, 0.06543102115392685, -1.4274210929870605,
          -0.35088053345680237, -0.27821287512779236
        ],
        [
          -2.875762462615967, 1.0917456150054932, -0.034241706132888794,
          3.2662127017974854, -1.8857883214950562, -0.2760172188282013,
          1.2039463520050049, 0.7298510670661926
        ],
        [
          -0.28326186537742615, -1.1033577919006348, -1.8156898021697998,
          -1.5716077089309692, 2.6994941234588623, -2.7148637771606445,
          -1.176451325416565, -0.9782485365867615
        ],
        [
          -0.4010520875453949, -1.7373324632644653, -2.249971628189087,
          -1.6612493991851807, 4.754055023193359, -4.252214431762695,
          -1.9029580354690552, -1.5021378993988037
        ],
        [
          -2.070401906967163, 0.6879645586013794, -0.06420642137527466,
          1.2663360834121704, -0.9732531905174255, -0.6752721667289734,
          0.616089403629303, 0.6877449154853821
        ],
        [
          -0.32078981399536133, -1.535858154296875, -2.134525775909424,
          -1.587449550628662, 4.648497581481934, -3.9800682067871094,
          -1.7980461120605469, -1.252084493637085
        ],
        [
          -3.4077467918395996, 1.9444334506988525, 8.347968101501465,
          4.636561870574951, -4.803971290588379, -1.6565927267074585,
          2.33235239982605, 1.7771393060684204
        ],
        [
          -1.6555736064910889, 0.3320256173610687, -0.32355809211730957,
          0.5804480910301208, -0.8094589114189148, -0.8173180818557739,
          0.31408798694610596, 0.30322131514549255
        ]
      ],
      "biases": [
        -1.3256523609161377, -1.271032691001892, -1.1529335975646973,
        -0.9472168684005737, -1.2738282680511475, -1.0873371362686157,
        -1.4226088523864746, -1.2487571239471436
      ]
    },
    {
      "weights": [
        [
          0.3325204849243164, -2.6203668117523193, 1.9123066663742065,
          5.268004417419434, -0.9514658451080322, 4.807149887084961,
          -8.089437484741211, -0.39057937264442444
        ]
      ],
      "biases": [-0.01450442336499691]
    }
  ],
  "inputLookup": null,
  "inputLookupLength": 0,
  "outputLookup": null,
  "outputLookupLength": 0,
  "options": {
    "inputSize": 0,
    "outputSize": 0,
    "binaryThresh": 0.5,
    "activation": "sigmoid",
    "hiddenLayers": [8, 8],
    "learningRate": 0.6
  },
  "trainOpts": {
    "activation": "sigmoid",
    "iterations": 20000,
    "errorThresh": 0.005,
    "log": false,
    "logPeriod": 10,
    "leakyReluAlpha": 0.01,
    "learningRate": 0.6,
    "momentum": 0.1,
    "callbackPeriod": 10,
    "timeout": "Infinity",
    "beta1": 0.9,
    "beta2": 0.999,
    "epsilon": 1e-8
  }
}
